3 300
why -0.0283 -0.1469 -0.1511 0.0522 0.0888 -0.0993 -0.0668 -0.0258 0.0305 -0.0568 -0.0319 0.1805 -0.0104 0.1783 0.0835 0.0326 -0.0109 -0.0953 -0.0642 -0.0871 -0.0294 -0.0327 -0.0757 0.0645 0.0184 -0.0136 -0.0395 -0.0299 -0.0545 0.0452 0.0093 -0.0405 -0.0445 0.0454 -0.0432 -0.0147 -0.0113 0.0630 -0.0357 0.0654 -0.0218 -0.0124 0.0418 0.0183 -0.1082 0.0016 -0.1179 0.1360 0.0642 0.0373 -0.0092 0.1017 -0.6554 -0.0306 0.0853 -0.0389 -0.0581 0.0154 -0.1001 -0.0549 0.1144 -0.0738 0.0840 0.0184 0.0855 -0.0573 -0.0205 -0.0357 0.0150 -0.0167 -0.1800 -0.0245 -0.0769 -0.0787 0.0378 0.0569 -0.0325 0.0379 0.1313 0.2363 0.0024 -0.1676 -0.0706 -0.3157 -0.0112 -0.1308 -0.0644 -0.0181 0.0431 -0.0773 0.0055 -0.1619 -0.0065 -0.0726 0.1133 0.0210 -0.0314 -0.1099 0.1243 0.0839 -0.1838 -0.0232 0.0128 0.0687 -0.1707 0.0368 -0.0392 -0.0106 -0.1512 -0.0190 0.0246 -0.2256 -0.0151 0.1432 -0.0101 0.0944 0.0275 -0.1319 -0.0474 -0.3549 -0.0684 0.0412 0.1065 0.0077 0.0873 0.1410 0.0170 0.0146 0.1082 0.0413 -0.1461 -0.0877 -0.2341 0.0671 -0.0338 -0.2880 -0.0557 -0.1468 -0.1607 0.0653 -0.0593 0.0209 -0.0549 0.2416 0.0039 0.0665 0.1413 0.0404 -0.0776 -0.1347 0.1551 -0.1412 0.1572 -0.0350 0.0269 0.0374 0.0666 -0.0323 0.0823 0.0173 -0.1097 0.0164 0.0722 -0.0653 -0.2728 -0.0640 0.1267 0.0403 0.0259 0.0162 -0.2965 0.0817 -0.0697 -0.0496 0.2396 0.0310 0.2358 0.1303 0.0720 -0.0715 0.1302 0.0748 -0.0511 0.0320 -0.0884 -0.0583 -0.0174 -0.1038 0.0512 0.0810 -0.0707 0.0948 -0.0300 0.0558 -0.0159 0.0290 0.0117 0.0184 0.2537 0.0291 -0.0122 -0.0617 -0.0317 -0.0088 0.1281 -0.0030 0.0788 -0.0191 0.0172 -0.0058 0.0347 -0.1440 -0.0859 -0.0831 -0.0167 -0.0300 -0.1149 0.0691 -0.1403 0.0251 0.1629 0.0415 -0.0717 0.0860 0.0397 -0.0556 0.0030 0.0734 -0.1735 -0.2256 -0.2101 -0.0620 0.2673 -0.1678 -0.0025 0.4438 -0.0237 0.1846 -0.1826 0.2388 0.0128 0.0278 -0.0312 0.0665 -0.0637 0.0193 0.0006 0.0456 0.1749 0.2425 0.0264 -0.1791 0.1531 0.0187 0.0792 0.0418 0.0702 -0.0425 -0.0582 0.0770 0.0083 0.1169 -0.1414 -0.0016 -0.2474 0.0364 0.0427 0.0059 -0.0738 0.0339 0.0335 0.0250 -0.0343 0.0133 0.0535 -0.0059 0.1041 -0.1281 0.1538 0.0503 0.2178 0.0730 -0.0633 -0.0500 0.0116 -0.0262 0.0042 -0.0117 0.0150 0.0874 0.1304 -0.0526 -0.0251 -0.0415 -0.0779 0.0299 -0.1051 0.3039 0.2006 0.1289
do -0.0728 0.0315 -0.0517 0.0181 -0.0469 -0.0655 -0.0887 -0.0215 0.0957 0.0687 0.0293 0.0094 0.0364 0.0045 -0.1857 0.0322 0.0024 0.0574 0.0351 0.0994 -0.0531 -0.0934 0.0750 0.1105 -0.1038 -0.0780 -0.0333 0.0450 0.0083 0.0476 0.0225 -0.0596 0.1975 0.0471 0.0047 -0.0104 0.0392 0.0247 0.0418 0.0893 0.0304 -0.0027 -0.0087 -0.0599 0.0463 -0.0788 -0.0432 -0.0636 0.0054 -0.0157 -0.0455 -0.0664 -0.6354 -0.0307 -0.0376 -0.0048 0.0154 -0.1063 0.1413 -0.0703 -0.0594 -0.0372 0.1452 0.0043 -0.0699 -0.0331 0.0250 -0.0268 0.0046 -0.0145 -0.0400 -0.0270 -0.0225 -0.1876 0.0158 -0.0066 0.0176 0.0510 -0.0300 0.3206 0.0618 -0.0635 -0.0922 -0.2222 -0.0790 0.0556 -0.0391 -0.0067 -0.3569 -0.0585 0.0621 -0.0566 -0.0091 -0.0881 -0.0753 0.0873 0.0267 0.0353 -0.0064 0.0631 -0.1431 -0.0041 0.0513 -0.0326 -0.1800 0.0099 0.0542 -0.0639 0.0223 0.0440 -0.0768 -0.1760 0.0577 0.0105 -0.2164 -0.0974 -0.0087 -0.0507 -0.0379 -0.4928 -0.0048 -0.0800 -0.0870 0.0665 0.0077 0.1138 -0.0836 0.2265 -0.0335 0.0020 -0.0178 -0.0389 -0.1264 0.0415 0.0991 0.0847 -0.0877 -0.0017 0.0271 0.0202 -0.0617 -0.0949 0.0717 0.3815 0.0279 -0.0437 0.0198 -0.0418 -0.0740 -0.0171 -0.1351 -0.0121 0.1156 0.0243 -0.0627 -0.0294 0.0490 -0.0022 -0.0343 0.0179 0.0711 0.0611 -0.0101 0.0204 0.0092 -0.0664 0.1134 -0.0217 0.0460 -0.0057 0.0552 0.1039 -0.0557 -0.1343 0.0159 0.0397 0.1566 -0.0730 0.0548 -0.0155 0.0744 -0.0192 -0.0736 0.0421 0.0004 -0.3913 -0.1081 -0.1197 0.2758 0.0732 0.0582 0.1863 -0.0092 -0.0103 -0.0954 0.0044 0.0542 0.0542 0.1624 0.0995 0.0236 -0.1002 -0.0665 -0.0006 0.0487 0.1105 -0.0240 0.0223 -0.0812 -0.0091 -0.0077 -0.0626 -0.0367 -0.0783 -0.0081 -0.0336 0.0542 -0.0375 0.0468 0.0382 0.0385 -0.0044 0.0206 0.0025 0.0001 -0.0387 -0.0360 0.1462 -0.1185 -0.1338 0.0385 0.0140 0.3395 -0.0811 -0.0658 -0.0434 -0.0099 0.0254 -0.1494 0.1266 -0.0480 -0.0365 0.0453 -0.0422 0.0112 0.0098 0.0868 0.0483 -0.0151 0.2003 0.0447 0.0337 0.0798 0.0295 0.1599 -0.0494 0.0838 0.0174 0.0119 0.1277 -0.0176 0.0011 0.0194 0.0321 -0.1978 0.0188 -0.0603 0.0004 0.0942 0.0074 -0.0116 0.0160 -0.0497 -0.0423 0.0428 0.1106 0.0135 -0.0906 0.1209 -0.0607 0.1496 -0.0185 -0.0312 -0.0105 -0.0177 -0.0310 0.0944 0.1318 0.0135 0.0442 0.0173 -0.0030 -0.0337 0.0212 -0.0382 -0.0392 -0.0915 0.2573 0.0445 -0.0741
how -0.0812 0.0396 -0.0182 -0.0586 0.0830 -0.0274 0.0217 0.0186 0.0478 0.0164 -0.0492 -0.0542 -0.0335 -0.0493 0.0357 0.0608 0.0091 0.0981 -0.1360 0.0587 -0.0106 -0.0383 0.0140 0.2154 -0.0255 0.0194 0.0061 -0.0220 -0.0525 -0.0533 0.0416 0.0458 0.1761 -0.0100 -0.0748 0.0610 -0.0491 -0.0286 0.0886 -0.0632 0.0511 -0.1239 0.0096 -0.0896 0.0472 0.0057 -0.1206 0.0811 -0.0365 -0.1055 0.0238 -0.1230 -0.6766 -0.0442 -0.0069 0.0282 -0.0941 0.0277 -0.1113 -0.1184 -0.0017 -0.0411 0.0369 0.0324 -0.0603 -0.1790 -0.0296 -0.0394 -0.0013 -0.0310 -0.0664 -0.0029 -0.0300 0.0026 0.0208 0.0469 -0.0558 -0.0045 0.0243 0.3794 -0.0316 -0.1619 0.0327 -0.2438 -0.0533 -0.0510 -0.0507 -0.0286 0.1509 -0.0211 -0.0741 0.0112 -0.0339 0.0076 -0.0066 -0.0366 -0.0292 -0.1136 -0.0070 0.0118 -0.1847 0.0198 -0.0795 0.0604 0.0655 -0.0329 0.0803 -0.1334 0.0912 -0.0827 0.0127 -0.2574 0.0641 0.0572 -0.0845 0.0900 -0.0098 -0.0849 0.0494 -0.2958 -0.1065 0.0759 0.0047 0.0961 0.1197 0.1794 0.0171 0.0791 0.0135 0.0571 -0.0573 0.0284 -0.1871 0.0155 -0.1876 -0.4168 -0.0547 0.0172 -0.0157 -0.0525 0.0229 -0.0570 0.0190 0.3089 -0.0797 -0.0291 0.0569 0.0511 -0.1105 -0.1328 0.0254 -0.0142 0.1371 -0.0847 0.0397 -0.0959 -0.0989 0.0337 0.0808 0.0325 -0.0574 -0.0616 -0.0107 -0.0900 -0.2076 0.0073 0.0935 0.0101 0.0643 0.0124 -0.3427 0.0047 0.0017 -0.0539 0.2368 -0.0090 0.2500 -0.1932 0.0106 -0.0153 0.1309 0.1272 0.0313 0.0777 -0.0068 -0.0097 -0.0491 -0.0593 0.0597 -0.0465 -0.0093 -0.0439 -0.0005 0.0151 -0.0860 0.0143 0.0419 -0.0691 0.2182 0.0346 -0.0453 0.0484 -0.0899 -0.0835 -0.0322 -0.0870 0.0444 -0.0579 0.1423 0.0892 -0.0412 -0.0405 0.0248 -0.0213 -0.0711 0.0153 -0.0942 0.0562 -0.1388 0.0230 0.0133 0.0195 0.0296 0.0020 0.0981 -0.1518 -0.0816 0.0513 -0.0921 -0.1892 -0.0975 0.0764 0.3014 -0.1209 -0.0837 0.2975 -0.0074 0.1496 -0.1829 0.1375 -0.0195 -0.0208 -0.0697 0.1008 -0.0257 0.0898 -0.0207 0.0557 0.1251 0.3345 0.0188 -0.1269 0.0821 0.0531 0.0359 -0.0211 -0.0934 -0.0416 -0.0288 0.0564 0.0596 0.0437 -0.0505 -0.0201 -0.2721 0.0310 0.0100 -0.0228 0.0441 0.1411 0.0259 0.0966 -0.0787 0.1059 0.0721 -0.0396 0.0895 0.0045 0.0257 -0.0639 0.0265 0.0021 0.0039 -0.0730 0.0821 -0.0502 0.0664 -0.0616 -0.1806 0.0483 0.0339 0.0359 0.0271 0.0520 -0.0519 -0.0603 -0.1298 0.2167 0.2027 0.1201
